-1.2861098813608909,0.0,-0.004438351249588494,-0.10633330947061467,-0.13187128039115262,0.11359798508405805,-0.2771785970294977,-0.06471101877294239,-0.02574383285282223,0.022813343998746766,0.11546252396329246,0.09392754023464242,-0.007999840541040923,-0.13054717191698276,-0.12122033726138644,0.0,0.0,0.0,0.0,0.0,0.0,0.0,0.0,0.0,0.0,0.0,0.0,0.0,0.0,-0.03784563531335499,-0.10459099671994875,-0.06304607226205068,0.09853285739863381,-0.2008028869382455,0.0341821132597488,0.016103184886775437,-0.01209661380251673,0.042512771517009044,0.06279928043596508,-0.014796049078689604,-0.0026697774131799043,-0.06770397473086406,-0.0010533420037835328,0.22272252496333655,0.029669692262240963,0.2453144564560008,0.3194825668138922,-0.018582757394797964,-0.0827462283950861,-0.12872797196213964,-0.15235979576501535,0.01738038916331243,0.1167417922384558,0.177557380197091,0.32032776068387026,-0.23593920922336292,0.34740836803707337,0.2571539633712033,-0.047025695311836965,-0.2736756943796076,-0.14892781247357473,-0.28808024899587437,-0.013456779026256473,0.13671916017800984,0.2649505526438155,0.03164839205142723,-0.2535661804856481,-0.31563667404763873,0.026690038117719955,0.10060846350258439,0.13584377515335028,0.13232751160339026,0.03975650067218247,-0.12373354282357665,-0.1790798798792514,0.35641950398870603,0.27904673929305307,-0.1740630104177152,-0.2297447973570801,-0.3039284104426877,-0.37213328942916457,0.0006887545871031278,0.282728383232305,0.18374638734769244,0.175952032771424,-0.03553689467179204,-0.12620439142489714,-0.08046539542181075,-0.21188903242449317,0.026849197666300152,0.07013760398353043,0.06410990362319818,-0.07153394158507112,-0.013366635678035846,0.022077757629351304,-0.005420593277076888,0.014167704746112756,0.01231559123261289,-0.07061350558844968,-0.006691539308987227,0.02868312109005152,0.043710707988749826,-0.014426836195955745,-0.030840280547714708,-0.07426460668487657,0.13846663462859024,0.11990635862195032,-0.022640013913941215,-0.15350306226923802,-0.13681920182264637,0.16356900976663663,0.006669289937657156,-0.11700490376492538,-0.2272477161313076,-0.018953469433909256,0.008397950066139187,0.001062623955728826,0.13198118513894624,0.12220132270132526,0.05042962576435739
-0.8819237971408683,0.0,-0.004045475209824976,0.18769537991449148,0.1792455892205269,-0.19650714777839431,0.037364374045183446,-0.14349696276633772,-0.04519150941162306,0.12199310976179153,-0.05636786744067411,-0.06722275928962801,0.00790331757284396,-0.0321603352112377,-0.12869077575249946,0.0,0.0,0.0,0.0,0.0,0.0,0.0,0.0,0.0,0.0,0.0,0.0,0.0,0.0,-0.03175030622691684,0.14358732433047597,0.13137240673197728,-0.14670431005397552,0.022211631585121266,-0.1295863223773306,-0.01963861098567157,0.09605052245408428,-0.03550585251254389,-0.052467318899394655,0.006219919633831074,0.002068995484426516,-0.1190145757222168,0.05493937817490854,0.2863286184575186,-0.05823100740192937,0.09728724954836394,-0.17062674338730197,0.11376703866405877,0.31744453093516334,0.2107862286316631,0.15364479798447017,0.047947590411698854,-0.18379351311525854,-0.17837891902319544,-0.05941961011617847,-0.2884040446688108,0.055850925791855334,-0.322567652904259,0.09743120751484238,0.11153351973376999,0.18444249249032466,0.09817325727217596,0.052127151751462125,-0.1881501787821444,0.048909490033681766,0.054187064719318064,-0.09984720216848994,0.17930321129762705,-0.1206492180835274,-0.3207321777847357,-0.2192151345775128,-0.1552921505611449,-0.04697998461746058,0.19280696635765368,0.1727639594655409,-0.17987865730082425,-0.22063661997564454,-0.01810925152969077,0.14395339773129198,0.06872697987181801,0.029116744288281274,0.027979530999081646,-0.04254502931987543,-0.2084920346471191,0.06217982006812165,-0.09483388903939638,-0.1782881432950359,-0.12446017223921714,-0.06412448575096982,-0.07229327999405316,0.1398697959816496,0.06791188717070039,-0.15207480646946397,0.07138027954527233,-0.06212776949702128,-0.05990397347192283,-0.04897644239873833,0.04011950522576422,-0.10793748879485138,0.12899983620097072,0.11083437971196246,0.0664573403966896,0.06422254029173301,-0.12648474286494069,0.04370823112535494,-0.014565515575918973,-0.08185154002536593,0.033211104258910024,0.05113664983704602,-0.11140128546633651,-0.0553905622747858,-0.0063653906526111356,0.06497316615378007,-0.10936374549129008,0.02811223104513631,-0.007725691633022915,-0.11188147142069246,0.02688761117733682,0.12744189906622777,-0.12754552195654825
-1.1367262413598314,0.0,-0.043108822059579895,0.04564831845405087,-0.20920028991869785,-0.04857258163055748,0.1022999626226395,-0.034643962111501364,0.09845139144914805,-0.14758991966911114,-0.008219842086252236,-0.02730985978398096,-0.0001155446248390501,-0.12208450645904542,0.21230829677502758,0.0,0.0,0.0,0.0,0.0,0.0,0.0,0.0,0.0,0.0,0.0,0.0,0.0,0.0,-0.024350661351908307,0.0366385577765231,-0.16142582566621055,-0.03680048840266522,0.10300332990776905,-0.015183506320689407,-0.006428596726101322,-0.08230317079811228,-0.02316519111467677,-0.06822811248643122,-0.03353148858539867,0.03366779684225486,0.12041690158485792,-0.05809304755275278,-0.2369222368452747,0.05488666302923247,0.025774344478309362,0.042327011267698736,0.08488432520205476,-0.12630731864711145,0.014095241089049285,0.005225929366672546,-0.049156512282810705,-0.04994021667191375,0.20998793325355564,0.17739126629753801,0.232608896260935,-0.26593363037766,0.15119197532060658,-0.23644071330041172,0.22963297579055297,-0.19220885239504362,-0.05504120411456168,0.0008328160101514485,0.21467492674085425,-0.39690128676205666,-0.06701912638918718,-0.030382129484240104,-0.04826867016376735,-0.08872783936204726,0.1234713263918602,-0.0173725439808295,-0.00924984597493861,0.04635379929074704,0.052558267344407314,-0.21006191108389888,0.03729405472162352,-0.08936876094365635,0.14533608129162648,-0.13824737807328513,0.07864548303478663,0.04985291595839167,0.020276524742778246,-0.10946276094956087,0.2823182585716325,-0.0855758875140954,-0.06860178331668225,0.07006655321962682,-0.020351618250253653,0.002756720390029374,0.062435408893887524,0.03637563188597401,-0.13433409016482795,0.14991412453379488,-0.1729023487569728,0.07639754582994582,-0.012722220056997972,0.009731947357258262,-0.12408126388471889,0.24256236400820497,0.23901682852654355,-0.11475340463860194,-0.03687838047344307,0.020855716331718573,0.15223941629197138,-0.32236603559867627,-0.08801385593509213,-0.004841156302020743,-0.005120808798894342,-0.017185025146501706,0.18017345976578303,-0.022146038717221952,0.004170110182256835,0.026548188357435866,0.12088178532798467,-0.08314257108107019,0.0018680968378585136,0.034695679799087505,0.12514391044333498,-0.21555893901995987,0.3349750333110328
-1.032571464720162,0.0,0.06631991681264583,-0.11323161699784887,0.0871187602095879,0.11322475922793605,0.06993199065511349,0.22852243860220345,0.07824102564058391,0.016576662715756817,-0.0048713567558232385,0.03457575139401749,-0.008594690754908539,0.1843073507934294,0.001781596251815537,0.0,0.0,0.0,0.0,0.0,0.0,0.0,0.0,0.0,0.0,0.0,0.0,0.0,0.0,0.10289406857450217,-0.11613596168156579,0.031105806402588906,0.1228107487693225,0.009823284892182616,0.15237254778800838,0.09559248613462178,0.016926367631249918,0.06074207643524637,0.09799826781342626,0.04007238750322962,-0.0533840645864342,0.024804468661904777,0.15110121526347298,-0.1845060262913553,-0.19429143673162128,-0.23937646499816523,-0.2722415058389956,-0.14934654328777738,-0.09929946893934624,-0.10340568959989396,-0.05526791359241746,0.00014716445513706007,0.10397605280384088,-0.06818948587370686,-0.10766014901090122,0.2040519498544081,0.08913533548693849,0.15624717334105725,0.11191590312024334,-0.02305503900851986,0.0770430006341896,0.09424493571187637,0.005659702312656498,-0.08227136281028258,0.07650530648912043,0.1268163117270808,0.2474835074621349,0.27438049216973637,0.14783765860859643,0.08552268724841358,0.10342040882181748,0.07724510115245307,-0.05595432594605821,-0.10410579763329225,0.07504889621226625,0.02348519136417178,0.16178920574296582,0.06485191430736938,0.11183021746067189,0.06714364004162882,0.09963401634888214,-0.0434446489055901,-0.06047043163824623,-0.058334815751308486,0.12261317365429532,0.2160631844990869,0.23139324858843183,0.21807760246444874,0.2220274800745214,-0.027363908589269022,-0.22247481144268855,-0.01665851169051151,0.15142932090423689,0.04576022728732742,0.07024129873274317,0.08110549445614897,0.00474420709516975,-0.05062994990382561,-0.0011971273776736086,-0.04680675460173254,0.009559462365818892,0.024330634421736712,-0.015102757178637868,-0.010366590953537718,-0.00033563455465974263,-0.0013286792180012552,0.023925610185916425,-0.009353275573371964,0.047710848045790503,0.006183436250265084,-0.01722288988872331,-0.013302230277225909,-0.02079920122755401,0.009371240336812858,0.042103785411279626,0.0070912528287306,0.05406421065492603,-0.18044430147662896,-0.0002776169796154873,-0.012446841943462529
